0.000000000000000000e+00
0.000000000000000000e+00
0.000000000000000000e+00
0.000000000000000000e+00
0.000000000000000000e+00
0.000000000000000000e+00
0.000000000000000000e+00
0.000000000000000000e+00
0.000000000000000000e+00
0.000000000000000000e+00
0.000000000000000000e+00
0.000000000000000000e+00
0.000000000000000000e+00
0.000000000000000000e+00
0.000000000000000000e+00
0.000000000000000000e+00
0.000000000000000000e+00
0.000000000000000000e+00
0.000000000000000000e+00
0.000000000000000000e+00
0.000000000000000000e+00
0.000000000000000000e+00
0.000000000000000000e+00
0.000000000000000000e+00
0.000000000000000000e+00
0.000000000000000000e+00
0.000000000000000000e+00
0.000000000000000000e+00
0.000000000000000000e+00
0.000000000000000000e+00
0.000000000000000000e+00
0.000000000000000000e+00
0.000000000000000000e+00
0.000000000000000000e+00
0.000000000000000000e+00
0.000000000000000000e+00
0.000000000000000000e+00
0.000000000000000000e+00
0.000000000000000000e+00
0.000000000000000000e+00
0.000000000000000000e+00
0.000000000000000000e+00
1.258064105448677972e-01
-3.725517432985781668e-02
4.735910367108532304e-01
0.000000000000000000e+00
0.000000000000000000e+00
0.000000000000000000e+00
0.000000000000000000e+00
0.000000000000000000e+00
0.000000000000000000e+00
0.000000000000000000e+00
0.000000000000000000e+00
0.000000000000000000e+00
0.000000000000000000e+00
0.000000000000000000e+00
0.000000000000000000e+00
0.000000000000000000e+00
0.000000000000000000e+00
0.000000000000000000e+00
0.000000000000000000e+00
0.000000000000000000e+00
0.000000000000000000e+00
0.000000000000000000e+00
0.000000000000000000e+00
0.000000000000000000e+00
0.000000000000000000e+00
1.477604999773333150e-01
3.501139386114632268e-02
2.894267025667907316e-03
-5.776072591741764246e-03
2.031961631702011370e-02
-1.614916268770019703e-01
9.362078390214301216e-03
-9.613932312599051677e-01
-3.195792977510582278e-02
0.000000000000000000e+00
0.000000000000000000e+00
0.000000000000000000e+00
0.000000000000000000e+00
0.000000000000000000e+00
0.000000000000000000e+00
0.000000000000000000e+00
0.000000000000000000e+00
0.000000000000000000e+00
0.000000000000000000e+00
8.567295374223297122e-01
0.000000000000000000e+00
0.000000000000000000e+00
0.000000000000000000e+00
0.000000000000000000e+00
-1.303403891182966401e+00
-2.341140299045050277e+00
-2.453565373371303371e-01
8.223639046708086653e-02
5.811479197554313874e-04
1.484244136477268217e-02
5.419225206745531542e-02
1.133535225823481402e-01
1.122439343912459281e-01
1.125609466766367035e-02
1.097772304522651871e-01
1.324698233081509080e-01
-4.549762508432832891e-03
-4.474634621052205746e-02
8.533598267804774762e-03
2.975811519254067256e-02
-6.059664801609664364e-01
0.000000000000000000e+00
0.000000000000000000e+00
0.000000000000000000e+00
0.000000000000000000e+00
0.000000000000000000e+00
0.000000000000000000e+00
1.204017103547938040e-02
-8.052255827615727446e-01
2.183433618626458295e-01
0.000000000000000000e+00
-5.110169833125556560e-02
1.794041637436285808e-01
2.897116198266897966e-02
1.600672954344081744e-01
1.322290472203163092e-01
-3.872759465754051840e-05
1.915277181592423689e-02
2.289058957307605127e-02
3.207798257537305964e-02
2.558974766373610724e-02
4.892797218665587838e-02
9.465426434523456500e-02
7.081377215167705685e-02
1.513910278230770068e-01
1.225872006660056052e-01
1.459203690560024677e-02
3.656826432258339366e-02
5.230868947980426009e-01
-6.616309309287761453e-02
0.000000000000000000e+00
0.000000000000000000e+00
0.000000000000000000e+00
0.000000000000000000e+00
0.000000000000000000e+00
-1.075561704861074663e-01
1.910768563380086105e-01
1.585949608277300860e-01
-1.158326661755500545e-02
1.859739161620627265e-03
-1.960776191063319518e-02
-2.838118807063878118e-02
-1.006947760608862923e-02
-3.504268915378521299e-03
-1.675827859007943945e-03
3.066769708082662442e-05
-8.620792768952041099e-04
-5.710297645110664570e-04
2.131003574473473803e-03
-4.671642436795351563e-04
1.024425756462361316e-03
1.329781779201736052e-03
1.181116352765690727e-02
3.208096473366556234e-02
1.584116910128849365e-02
1.333846766328746283e-02
4.004888089198024165e-02
7.607131240699026298e-02
1.291046339544628108e+00
2.428479863086578927e-01
0.000000000000000000e+00
0.000000000000000000e+00
0.000000000000000000e+00
-5.179169101139563525e-01
1.420712919787298946e-02
7.793162064166837821e-03
-5.032543836361815653e-02
-1.870139352620217577e-02
-1.371447778935152260e-02
-2.799496182822596856e-04
-1.695004994042753968e-02
-7.582642379328373081e-03
-5.308173678276634742e-03
1.104833368381567165e-03
-2.006600446919930628e-03
4.533081579972254144e-04
-2.690190387580415968e-04
-3.320178662245718785e-04
-6.173325518525370334e-04
-7.570739360621904675e-04
5.870698348835294567e-04
5.436551650724702825e-03
6.566549537822288091e-03
-3.527167243207958870e-03
-4.185135003864392730e-03
2.236268290296632849e-02
3.220548848176238987e-01
0.000000000000000000e+00
0.000000000000000000e+00
3.863276686974666529e-01
-1.228567570366303485e-01
1.093856775560922562e-01
-1.459782800534049629e-01
3.399409267328593054e-02
-3.117076743745881423e-02
-4.887319494977396088e-03
-3.588687625079721184e-03
-7.615975913039176905e-03
-9.602629183836789220e-03
-7.081276445872613200e-03
-4.884539633472235846e-03
-4.574788864126206125e-03
-1.590732141969029498e-03
-8.333711328547408403e-04
-6.267440151296632981e-04
-2.838738403724881481e-04
5.614556476970596928e-05
-2.859888487387590023e-04
-7.669076690856026180e-04
-1.302905188127173976e-04
-1.653155296510436332e-03
-1.126155653492137134e-03
1.322707123558824333e-02
-1.467527888875424374e-02
7.431174676271054547e-02
0.000000000000000000e+00
0.000000000000000000e+00
2.968792465779971357e-01
-8.865687926573558031e-02
-1.634004618468495873e-01
-1.913897328472511164e-02
1.778430967328886031e-02
-1.882028597554516285e-03
-2.334367204340479646e-02
-2.235368545306901447e-02
-1.252919028861168571e-02
-9.186274765600972725e-03
-5.868329825163776971e-03
-3.612806313675007066e-03
-2.952654211443435112e-03
-1.355786555216450390e-03
-1.132827600783487942e-03
-1.345187308084852627e-04
-9.119679308661692669e-04
-5.352621439103520586e-04
-1.895563545764073323e-03
-3.410144658976162744e-04
-2.971442785039611796e-03
6.261931758868827897e-04
-9.524054872001587804e-03
1.515618586376536563e-02
3.585510153342997240e-03
-7.164497207179547356e-02
0.000000000000000000e+00
0.000000000000000000e+00
2.203112136634761242e+00
-1.810943835217437153e-02
-1.324197801196582702e-01
-8.262989225739593435e-02
-8.857800115115669476e-03
3.104446123434907116e-03
-2.669522513420765665e-03
-5.277438442297346065e-03
-2.991013812365357974e-02
-1.490726394412585955e-02
-6.792681758417066194e-03
-4.235258219243897768e-03
-2.072258529114656602e-03
1.177753153834370939e-03
-6.551942213600862961e-04
8.222612937810534327e-04
5.422810496585721025e-04
-8.312122752301700449e-04
-1.331687629878670074e-03
3.334913963147920148e-04
3.505415526414288794e-04
2.719630938834336886e-03
-5.493078105644219264e-03
-1.344935961855136912e-02
1.370358445611867711e-02
3.470035527007461068e-02
-2.299215270853023907e-01
0.000000000000000000e+00
-2.069850910854656334e+00
2.992227043430315328e-02
9.044514495286624239e-03
-1.273925846801131079e-01
1.282422577460804250e-02
-1.600264589258537304e-02
-4.348329433142668343e-02
-9.665253493651533231e-03
-2.290957767529274575e-02
-1.086694498359040868e-02
-1.410999949574182977e-03
-3.097229566192921928e-03
3.308183521531087110e-03
1.703686576376608379e-03
2.734791095147989185e-03
4.826840554808356260e-04
6.474550738848791316e-04
-6.580375671495028054e-04
-1.443629805125866894e-03
-3.901073289307941880e-03
-2.932077306457532475e-03
-2.447080220821146873e-03
-8.193006043932709107e-03
1.076241610749662826e-02
6.111782160554064119e-02
8.227569509375885770e-03
2.630426912124141925e-01
-5.590901233775354973e-01
9.604988812328865144e-01
2.831462750782300780e-02
-3.081314589759308678e-02
-5.457409929618362021e-02
-9.528773732418067965e-03
-1.510036089407462354e-02
-1.692018843633526573e-02
-8.961397474944390873e-02
-1.295535828944060185e-02
-1.424844472441460022e-02
-3.553800584812289495e-03
-1.044010451047680055e-03
7.147601325882030517e-04
4.456266455115126535e-03
5.021584553180089353e-03
1.133220651412295086e-03
7.346429425176962454e-04
-1.504452140868189165e-03
-2.810310458863625807e-03
-4.979159882943813044e-03
-4.653846925188281566e-03
-4.553060613491355206e-03
-1.058728547533717423e-02
-2.901676622008822135e-02
-3.002526572333411373e-02
-9.904371209656194497e-02
8.602902065012457689e-02
1.824797107877620672e-01
-7.358543770322437672e-01
-7.567490681085470294e-01
1.563871718668268310e-02
-1.283630950054601150e-02
4.070641573785829456e-03
-4.360694602791522628e-02
-2.567131179634097107e-02
-9.184524635490333433e-03
3.085206125575820635e-03
-2.023397987974643198e-03
-5.660543767979940577e-03
-2.043346773360660805e-03
5.516094037451824660e-03
7.633144038575865285e-03
2.698632806318817558e-03
5.386890703684032349e-04
-5.531092085055064594e-04
-1.169769671994393915e-03
-2.195091153172243261e-03
-7.913291119246068997e-03
5.324540292817944373e-03
-2.192638158005258756e-02
1.411200501549764001e-02
-9.485139861040617348e-03
3.504553963438306746e-02
-1.416960123933012072e-01
-1.497542056661231580e-01
1.081416871782511918e-01
6.533460507084456470e-01
-4.445641547217388245e-02
-1.839686156172569420e-02
-1.808841769545334599e-01
-7.941224673885336621e-03
-1.080136663935959626e-02
-5.665364537677567564e-02
-1.165334577022844424e-02
-1.075004701252316175e-02
-8.821372783851674174e-04
-7.586534843048598625e-03
-8.825561912612807369e-04
3.176692945160985992e-03
1.085863357388250003e-02
1.535549692498488009e-03
9.239222793451541942e-04
1.908276410145684867e-04
-3.649296864051114735e-03
-3.205530284114932807e-03
-7.660865091953628948e-03
1.589544244760122569e-03
-1.242820306026895180e-02
-3.748860564541377748e-03
-5.162342844868686616e-03
-1.484310962618912502e-02
-6.367648497998478450e-03
-1.285150983203828257e-01
0.000000000000000000e+00
0.000000000000000000e+00
1.981251477809283304e-02
3.738805521131189497e-02
-9.073488092072620748e-02
5.192826178834622497e-02
-2.558822955578105018e-02
-4.466039548426091639e-03
-5.057072701959617299e-03
-4.993250230821730078e-03
1.339597003209132275e-03
-2.936418862789073360e-03
7.915717065726058993e-04
4.672519032394390100e-03
5.615834193556027212e-03
1.396572501873887071e-03
1.092621881929269252e-04
1.263345981493452946e-04
-4.919779823701735284e-03
-1.447433396392192387e-02
-1.214505022099695609e-02
-7.105723112393907102e-03
-1.850888272356814718e-02
-8.033711344294243092e-03
-6.468463853550548981e-02
-2.127345804698938525e-01
3.950825620467710714e-02
8.787619654315743933e-02
0.000000000000000000e+00
-1.549154212508405959e-01
0.000000000000000000e+00
2.363406664421084380e-01
1.668456501278105242e-02
-4.913378203602850047e-01
-1.273217652630943657e-02
3.439780558418818052e-02
-1.201760540227276956e-02
-4.522719783076886019e-03
2.146611009261003948e-03
-4.933780733375736464e-03
-2.295341439265798002e-03
3.401983095142848378e-03
1.450701557178878977e-03
4.574862097208448066e-04
1.187970873452953409e-03
-1.932396339598942570e-03
-9.179927312935397266e-03
-1.341760968470314189e-02
8.085315196014326551e-04
8.582847043810170121e-03
-8.012148683171622932e-02
-2.104490956780045649e-02
-2.430154325495325063e-01
5.542619410585864631e-02
4.850240709864828137e-02
-3.900922507008393603e-01
0.000000000000000000e+00
-4.191535896586449234e-02
5.974600425027103423e-01
5.343054891517982075e-01
-4.461876062480707450e-02
1.306113411802474200e-01
-4.446969821158834602e-02
3.848134156677933231e-03
-1.980623145232435559e-02
-9.295594753684037828e-03
-5.953355993235888086e-04
-2.083975738163150026e-03
3.201799340611501208e-03
5.243339730241287000e-04
5.687912961605909746e-04
3.531732591181389750e-04
-9.727484241616078057e-04
-2.454800804451916577e-03
-8.759052867160728451e-03
-4.115259032659391268e-03
3.737998087772504731e-03
-9.098888334936250030e-03
1.871228230766314865e-02
1.867062642549514092e-03
-2.697642713655198400e-03
-6.907633696224798996e-03
7.843341481528794124e-02
3.766694934828873631e-02
0.000000000000000000e+00
0.000000000000000000e+00
-1.692731235776605003e-01
-1.724845403060416560e-01
1.020142482789157812e-01
-3.453261855875994213e-02
-1.620672486581240662e-02
-6.733963407164779251e-03
4.052630585319281532e-03
-2.539996649504137633e-03
-4.106388595821729506e-03
7.162232470351507889e-05
-5.690855341616350531e-04
2.403991338025631048e-04
6.521024418091876489e-04
-4.913514660446919929e-04
-5.490906428809740579e-04
-2.091405465448935210e-03
-1.088758582863647711e-02
-5.428399240221590434e-03
1.043736282859021244e-02
-1.604786948498234875e-02
-5.789333592417550585e-03
5.605004821869207475e-03
1.909366468430416866e-02
-1.976027755973824157e-02
-1.052759765461124958e-01
1.073393098334032014e-01
-6.301630083983533304e+00
-2.233814006803849672e+00
5.649734161441328784e-01
2.195597084461311521e-01
4.338588407229538313e-01
-5.833614008441823096e-01
8.263256978986956158e-02
3.166141423687234002e-02
-3.698729019516326481e-03
9.374656963698749582e-03
3.262910730118485144e-03
1.363553732876969385e-03
8.239086685859131273e-04
-4.872851787622998923e-04
2.031540260560212052e-05
4.002438110523120313e-05
3.276184000552414361e-04
1.629996848791581817e-03
-2.872763658963591125e-03
-4.616406345180815336e-03
-1.176657685723530048e-03
-1.487232305391813884e-02
1.775212043399902045e-02
-2.318068697314881396e-02
2.846031139186909129e-02
1.870140152487637791e-02
1.497202735602726764e-01
-5.441063976659726853e-01
-1.399373094369634196e-01
0.000000000000000000e+00
-1.199299944756412467e-01
-8.404018186251140110e-02
-4.425089650460382190e-02
5.531680160419596981e-02
-3.231949070061107543e-02
-2.596391267604231611e-04
1.402339644175087420e-02
-3.373525528905605558e-03
3.077698471255634906e-04
-9.920526041999906523e-05
2.040707211083203111e-03
-7.054802303362229425e-04
1.224720723784068592e-04
1.028557399830623944e-03
2.654480270633586582e-03
6.328738407899517533e-03
6.835108596598944188e-03
-4.383296482495293569e-04
1.182472549057542871e-02
-5.413812653440636807e-02
3.910382294860655777e-02
9.852163262541730263e-03
-4.143953769687137856e-02
8.921700798089597650e-02
-2.093781309303770211e-02
1.358093368417355684e+01
7.127028351828493813e-01
0.000000000000000000e+00
-1.344046487967954562e+00
-2.271314538135149164e+00
3.519612400199816360e-01
4.431434749452218408e-02
2.615532704642279174e-02
1.230520260548548413e-02
9.378199419467256326e-03
1.333486193314949815e-03
2.466529201048237377e-03
3.748495021842635356e-04
5.837580558343588550e-05
2.315619332742292476e-05
4.216870247846088438e-04
3.198699318264914258e-04
2.437845938389045404e-03
5.130410763148745765e-03
2.367673099409456187e-03
-5.135082550837877929e-03
8.154879092220431239e-03
2.713320843493776183e-02
2.125998812061972304e-02
-4.449265176643768527e-02
-1.161788505578858696e-02
6.647166144438597379e-02
1.380547121339106564e-01
-1.588756315489008664e+01
9.061098661580224700e-02
-6.446597698629760176e-01
-1.542385920824603573e+00
2.852035733313124100e-01
3.185299512336078331e-01
7.484892290983330247e-03
6.501030864541249878e-03
5.892402362495033699e-03
3.355186662052128416e-03
1.636738666184876789e-03
1.807419134653135643e-03
5.287147715844506355e-04
1.264165346623311037e-03
-2.207034731533646238e-04
-5.390672241441589159e-04
1.351352038014082659e-03
3.229625363461967845e-03
3.673738572882113019e-03
1.422335151481870716e-02
8.168952155517838348e-03
4.221324808690846836e-02
7.324972905459570249e-02
-3.681853200261631098e-02
3.568192204307686632e-02
-7.506912848897338841e-02
9.565841064099499247e-02
1.740601730349261578e-02
1.795806258340791328e-01
0.000000000000000000e+00
0.000000000000000000e+00
3.273245082850065657e+00
2.478236615265766996e-01
-2.744329368764397703e-01
-5.318130610839745531e-02
1.449221193671802223e-03
1.172930253894622970e-03
-7.037289715801349846e-05
2.222783465897297615e-03
2.329007466563282926e-03
1.380344538755128329e-03
2.499938313917066221e-04
7.715132388619591131e-04
1.461499421415236475e-03
4.648729504059415183e-04
1.985489250625559372e-03
4.040206083243345556e-03
6.387676855064452737e-04
2.597221641066243050e-02
7.180274781268869422e-03
1.112243638703488274e-01
7.208742098881500138e-02
-1.276545290445550429e-01
2.745824897681026222e-01
3.463492254206176901e-01
1.266638211056228813e-01
-1.488969651372745173e-01
0.000000000000000000e+00
0.000000000000000000e+00
0.000000000000000000e+00
0.000000000000000000e+00
-1.014638656915854004e-01
-1.479083608514773600e-02
-3.048950623375727264e-03
-4.266862333771954258e-03
-2.053838393685913780e-04
-1.046594260775423474e-03
5.475567823685647227e-04
9.480802342762771054e-04
-3.182160976408860624e-04
-1.540184198407402593e-04
-7.724005768630150834e-05
-2.110575844363559003e-04
1.508346416046433451e-03
2.932872032958277596e-03
7.287977354324983587e-03
1.088892114301101728e-02
-2.345027083498914255e-02
-2.179760397073635808e-02
7.969548787494482034e-02
-2.287049875221876249e-02
-1.155875769916064194e-01
1.128916845599585161e-01
3.432637370736110749e-02
1.546201329586538720e-01
0.000000000000000000e+00
0.000000000000000000e+00
0.000000000000000000e+00
0.000000000000000000e+00
5.119787534053898276e-02
-1.512975061724951102e-02
-1.107954054966348890e-02
5.179156529181566486e-03
-1.921290887600111659e-03
5.384189538756451723e-04
-2.224248645346570737e-03
-6.014143380041833296e-04
-1.205680748604776465e-03
-1.329530563976482910e-03
-5.403715900451991089e-04
1.622167032563362260e-03
-5.803794470026910545e-04
1.112238259168020797e-03
-3.009251232323660423e-03
7.606669098755698862e-03
1.868156780145617535e-02
1.706030707379845371e-02
1.085983319433932726e-01
1.489719481202066154e-01
-9.466931864781860662e-02
-1.132318706827525195e-01
-1.292737821511977803e+00
1.365658676430405727e+00
0.000000000000000000e+00
0.000000000000000000e+00
0.000000000000000000e+00
0.000000000000000000e+00
-3.847403966586475377e-02
-5.374835575592976783e-02
-4.067820234520670014e-02
-2.620838731822735038e-02
-1.971140686115654961e-02
-8.521481187279758562e-03
-5.075731051890129339e-03
-1.985805569292162231e-02
-8.832342434630763642e-03
-1.209233916606083058e-02
-4.005339630967114616e-03
-3.969496068338942453e-03
-5.964386747030745763e-03
-1.635508037005846405e-02
-2.410482711454872001e-02
-7.168400268867590741e-01
-6.511027633612663512e-02
-1.318528904399853263e-01
-3.174922927821464264e-02
-9.404241616321047659e-02
4.047074016577151823e-01
5.344106130382130226e-01
0.000000000000000000e+00
0.000000000000000000e+00
0.000000000000000000e+00
0.000000000000000000e+00
0.000000000000000000e+00
0.000000000000000000e+00
0.000000000000000000e+00
-3.298667656313111762e-02
-1.554244299327609338e-02
-8.798413413459193685e-03
-5.302019712236274995e-02
-2.426318291193462762e-01
-5.877213392533588848e-02
-1.578418267766697192e-02
-1.536370976025085676e-02
-7.129236409343193970e-02
-1.279824114539839797e-01
-4.354608831093819549e-02
-5.133362835242354268e-04
-2.735680365721462198e-02
-1.155830877139663038e-02
-1.173304508842140381e-01
-1.066110286644443017e-01
6.556329458006764088e-02
-2.648094912419765579e-01
4.466673651946607704e-01
-4.070396319924292072e-01
0.000000000000000000e+00
-1.735945859240757561e-01
0.000000000000000000e+00
0.000000000000000000e+00
0.000000000000000000e+00
0.000000000000000000e+00
0.000000000000000000e+00
0.000000000000000000e+00
9.527781200827430130e-02
4.655766977243802618e-02
3.050784355532150383e-02
-6.877239457453973408e-03
9.731743626484079535e-02
5.037956126003501588e-03
2.419738056049267061e-03
1.811729288716369809e-03
9.906754365796962419e-03
1.231499332108098015e-03
4.043175588813291942e-03
-4.872686914138891351e-02
1.488193483405083825e-02
-4.248201258160431981e-02
1.499603252833841757e-02
3.236187157383555446e-01
-2.382897038484211791e-02
-4.043908328624392090e-01
2.090438428566902818e-01
-1.869326980658725379e+00
0.000000000000000000e+00
0.000000000000000000e+00
0.000000000000000000e+00
0.000000000000000000e+00
